#pragma once
#include <cstdarg>
namespace Eloquent {
    namespace ML {
        namespace Port {
            class RandomForestModel {
                public:
                    /**
                    * Predict class for features vector
                    */
                    int predict(float *x) {
                        uint8_t votes[3] = { 0 };
                        // tree #1
                        if (x[1] <= 17.059999465942383) {
                            if (x[0] <= 1676.5) {
                                if (x[1] <= 15.5) {
                                    if (x[1] <= 13.5) {
                                        if (x[1] <= 8.5) {
                                            if (x[0] <= 426.5) {
                                                votes[0] += 1;
                                            }

                                            else {
                                                votes[1] += 1;
                                            }
                                        }

                                        else {
                                            if (x[0] <= 314.0) {
                                                votes[0] += 1;
                                            }

                                            else {
                                                if (x[1] <= 10.5) {
                                                    votes[1] += 1;
                                                }

                                                else {
                                                    if (x[1] <= 12.5) {
                                                        votes[1] += 1;
                                                    }

                                                    else {
                                                        if (x[0] <= 1194.5) {
                                                            votes[1] += 1;
                                                        }

                                                        else {
                                                            votes[2] += 1;
                                                        }
                                                    }
                                                }
                                            }
                                        }
                                    }

                                    else {
                                        if (x[0] <= 320.0) {
                                            votes[0] += 1;
                                        }

                                        else {
                                            votes[1] += 1;
                                        }
                                    }
                                }

                                else {
                                    if (x[1] <= 16.994999885559082) {
                                        votes[0] += 1;
                                    }

                                    else {
                                        if (x[0] <= 949.0) {
                                            if (x[0] <= 298.5) {
                                                votes[0] += 1;
                                            }

                                            else {
                                                votes[1] += 1;
                                            }
                                        }

                                        else {
                                            votes[0] += 1;
                                        }
                                    }
                                }
                            }

                            else {
                                if (x[1] <= 14.96500015258789) {
                                    votes[2] += 1;
                                }

                                else {
                                    if (x[0] <= 2023.0) {
                                        votes[0] += 1;
                                    }

                                    else {
                                        if (x[1] <= 16.5) {
                                            votes[2] += 1;
                                        }

                                        else {
                                            votes[2] += 1;
                                        }
                                    }
                                }
                            }
                        }

                        else {
                            if (x[0] <= 299.0) {
                                if (x[0] <= 220.0) {
                                    if (x[0] <= 1.5) {
                                        if (x[1] <= 21.06999969482422) {
                                            votes[0] += 1;
                                        }

                                        else {
                                            votes[0] += 1;
                                        }
                                    }

                                    else {
                                        votes[0] += 1;
                                    }
                                }

                                else {
                                    if (x[0] <= 222.5) {
                                        if (x[1] <= 20.5) {
                                            votes[0] += 1;
                                        }

                                        else {
                                            votes[1] += 1;
                                        }
                                    }

                                    else {
                                        if (x[1] <= 21.22000026702881) {
                                            votes[0] += 1;
                                        }

                                        else {
                                            if (x[0] <= 268.0) {
                                                if (x[0] <= 256.5) {
                                                    votes[0] += 1;
                                                }

                                                else {
                                                    votes[0] += 1;
                                                }
                                            }

                                            else {
                                                votes[0] += 1;
                                            }
                                        }
                                    }
                                }
                            }

                            else {
                                if (x[1] <= 20.199999809265137) {
                                    if (x[0] <= 1557.5) {
                                        if (x[0] <= 1104.5) {
                                            if (x[0] <= 1025.0) {
                                                votes[1] += 1;
                                            }

                                            else {
                                                votes[1] += 1;
                                            }
                                        }

                                        else {
                                            if (x[0] <= 1485.5) {
                                                if (x[0] <= 1215.0) {
                                                    if (x[1] <= 20.030000686645508) {
                                                        if (x[1] <= 19.920000076293945) {
                                                            votes[2] += 1;
                                                        }

                                                        else {
                                                            if (x[0] <= 1171.0) {
                                                                if (x[0] <= 1137.0) {
                                                                    votes[2] += 1;
                                                                }

                                                                else {
                                                                    votes[2] += 1;
                                                                }
                                                            }

                                                            else {
                                                                votes[1] += 1;
                                                            }
                                                        }
                                                    }

                                                    else {
                                                        votes[2] += 1;
                                                    }
                                                }

                                                else {
                                                    if (x[0] <= 1460.0) {
                                                        if (x[1] <= 19.229999542236328) {
                                                            if (x[0] <= 1391.5) {
                                                                if (x[0] <= 1312.0) {
                                                                    votes[2] += 1;
                                                                }

                                                                else {
                                                                    if (x[0] <= 1377.0) {
                                                                        if (x[1] <= 17.770000457763672) {
                                                                            votes[1] += 1;
                                                                        }

                                                                        else {
                                                                            votes[1] += 1;
                                                                        }
                                                                    }

                                                                    else {
                                                                        if (x[1] <= 17.795000076293945) {
                                                                            votes[1] += 1;
                                                                        }

                                                                        else {
                                                                            votes[2] += 1;
                                                                        }
                                                                    }
                                                                }
                                                            }

                                                            else {
                                                                votes[2] += 1;
                                                            }
                                                        }

                                                        else {
                                                            if (x[1] <= 19.9950008392334) {
                                                                votes[1] += 1;
                                                            }

                                                            else {
                                                                if (x[0] <= 1276.5) {
                                                                    if (x[1] <= 20.0600004196167) {
                                                                        votes[2] += 1;
                                                                    }

                                                                    else {
                                                                        votes[1] += 1;
                                                                    }
                                                                }

                                                                else {
                                                                    votes[1] += 1;
                                                                }
                                                            }
                                                        }
                                                    }

                                                    else {
                                                        if (x[1] <= 19.385000228881836) {
                                                            if (x[1] <= 17.860000610351562) {
                                                                if (x[0] <= 1482.0) {
                                                                    votes[2] += 1;
                                                                }

                                                                else {
                                                                    votes[1] += 1;
                                                                }
                                                            }

                                                            else {
                                                                votes[2] += 1;
                                                            }
                                                        }

                                                        else {
                                                            if (x[0] <= 1475.0) {
                                                                if (x[0] <= 1467.0) {
                                                                    votes[1] += 1;
                                                                }

                                                                else {
                                                                    votes[1] += 1;
                                                                }
                                                            }

                                                            else {
                                                                votes[1] += 1;
                                                            }
                                                        }
                                                    }
                                                }
                                            }

                                            else {
                                                if (x[1] <= 18.41999912261963) {
                                                    if (x[1] <= 17.84000015258789) {
                                                        if (x[0] <= 1524.0) {
                                                            if (x[0] <= 1497.0) {
                                                                votes[0] += 1;
                                                            }

                                                            else {
                                                                if (x[0] <= 1510.0) {
                                                                    votes[2] += 1;
                                                                }

                                                                else {
                                                                    if (x[0] <= 1519.0) {
                                                                        votes[1] += 1;
                                                                    }

                                                                    else {
                                                                        votes[2] += 1;
                                                                    }
                                                                }
                                                            }
                                                        }

                                                        else {
                                                            if (x[0] <= 1526.5) {
                                                                votes[1] += 1;
                                                            }

                                                            else {
                                                                if (x[0] <= 1529.5) {
                                                                    votes[1] += 1;
                                                                }

                                                                else {
                                                                    if (x[1] <= 17.8149995803833) {
                                                                        if (x[1] <= 17.729999542236328) {
                                                                            votes[1] += 1;
                                                                        }

                                                                        else {
                                                                            if (x[0] <= 1531.5) {
                                                                                votes[1] += 1;
                                                                            }

                                                                            else {
                                                                                if (x[1] <= 17.789999961853027) {
                                                                                    if (x[1] <= 17.75) {
                                                                                        if (x[0] <= 1534.5) {
                                                                                            votes[1] += 1;
                                                                                        }

                                                                                        else {
                                                                                            votes[1] += 1;
                                                                                        }
                                                                                    }

                                                                                    else {
                                                                                        votes[1] += 1;
                                                                                    }
                                                                                }

                                                                                else {
                                                                                    votes[1] += 1;
                                                                                }
                                                                            }
                                                                        }
                                                                    }

                                                                    else {
                                                                        votes[2] += 1;
                                                                    }
                                                                }
                                                            }
                                                        }
                                                    }

                                                    else {
                                                        if (x[0] <= 1487.5) {
                                                            votes[1] += 1;
                                                        }

                                                        else {
                                                            if (x[0] <= 1534.5) {
                                                                votes[2] += 1;
                                                            }

                                                            else {
                                                                if (x[0] <= 1545.0) {
                                                                    if (x[1] <= 18.050000190734863) {
                                                                        if (x[1] <= 18.010000228881836) {
                                                                            if (x[1] <= 17.910000801086426) {
                                                                                if (x[1] <= 17.860000610351562) {
                                                                                    votes[2] += 1;
                                                                                }

                                                                                else {
                                                                                    votes[2] += 1;
                                                                                }
                                                                            }

                                                                            else {
                                                                                votes[2] += 1;
                                                                            }
                                                                        }

                                                                        else {
                                                                            votes[2] += 1;
                                                                        }
                                                                    }

                                                                    else {
                                                                        votes[2] += 1;
                                                                    }
                                                                }

                                                                else {
                                                                    votes[2] += 1;
                                                                }
                                                            }
                                                        }
                                                    }
                                                }

                                                else {
                                                    if (x[1] <= 20.114999771118164) {
                                                        if (x[0] <= 1554.5) {
                                                            if (x[1] <= 20.010000228881836) {
                                                                votes[1] += 1;
                                                            }

                                                            else {
                                                                if (x[0] <= 1496.0) {
                                                                    if (x[0] <= 1494.5) {
                                                                        if (x[1] <= 20.030000686645508) {
                                                                            votes[1] += 1;
                                                                        }

                                                                        else {
                                                                            votes[1] += 1;
                                                                        }
                                                                    }

                                                                    else {
                                                                        votes[1] += 1;
                                                                    }
                                                                }

                                                                else {
                                                                    votes[1] += 1;
                                                                }
                                                            }
                                                        }

                                                        else {
                                                            if (x[0] <= 1556.5) {
                                                                if (x[1] <= 19.93000030517578) {
                                                                    votes[1] += 1;
                                                                }

                                                                else {
                                                                    votes[2] += 1;
                                                                }
                                                            }

                                                            else {
                                                                votes[1] += 1;
                                                            }
                                                        }
                                                    }

                                                    else {
                                                        if (x[0] <= 1544.0) {
                                                            if (x[0] <= 1502.0) {
                                                                if (x[1] <= 20.139999389648438) {
                                                                    if (x[0] <= 1498.5) {
                                                                        if (x[0] <= 1496.0) {
                                                                            votes[2] += 1;
                                                                        }

                                                                        else {
                                                                            votes[1] += 1;
                                                                        }
                                                                    }

                                                                    else {
                                                                        votes[2] += 1;
                                                                    }
                                                                }

                                                                else {
                                                                    if (x[0] <= 1494.5) {
                                                                        votes[1] += 1;
                                                                    }

                                                                    else {
                                                                        if (x[0] <= 1498.0) {
                                                                            votes[2] += 1;
                                                                        }

                                                                        else {
                                                                            votes[1] += 1;
                                                                        }
                                                                    }
                                                                }
                                                            }

                                                            else {
                                                                if (x[0] <= 1508.0) {
                                                                    votes[1] += 1;
                                                                }

                                                                else {
                                                                    if (x[0] <= 1509.5) {
                                                                        votes[1] += 1;
                                                                    }

                                                                    else {
                                                                        if (x[0] <= 1533.0) {
                                                                            votes[1] += 1;
                                                                        }

                                                                        else {
                                                                            if (x[1] <= 20.15999984741211) {
                                                                                votes[1] += 1;
                                                                            }

                                                                            else {
                                                                                if (x[1] <= 20.18000030517578) {
                                                                                    votes[1] += 1;
                                                                                }

                                                                                else {
                                                                                    votes[1] += 1;
                                                                                }
                                                                            }
                                                                        }
                                                                    }
                                                                }
                                                            }
                                                        }

                                                        else {
                                                            votes[2] += 1;
                                                        }
                                                    }
                                                }
                                            }
                                        }
                                    }

                                    else {
                                        if (x[1] <= 19.449999809265137) {
                                            if (x[0] <= 2646.0) {
                                                if (x[1] <= 17.96500015258789) {
                                                    votes[1] += 1;
                                                }

                                                else {
                                                    if (x[1] <= 18.010000228881836) {
                                                        if (x[0] <= 2268.5) {
                                                            if (x[1] <= 17.989999771118164) {
                                                                votes[1] += 1;
                                                            }

                                                            else {
                                                                votes[2] += 1;
                                                            }
                                                        }

                                                        else {
                                                            if (x[0] <= 2309.5) {
                                                                votes[1] += 1;
                                                            }

                                                            else {
                                                                if (x[0] <= 2622.5) {
                                                                    votes[2] += 1;
                                                                }

                                                                else {
                                                                    votes[1] += 1;
                                                                }
                                                            }
                                                        }
                                                    }

                                                    else {
                                                        if (x[0] <= 2530.5) {
                                                            if (x[1] <= 18.920000076293945) {
                                                                votes[1] += 1;
                                                            }

                                                            else {
                                                                if (x[1] <= 19.06999969482422) {
                                                                    votes[2] += 1;
                                                                }

                                                                else {
                                                                    votes[1] += 1;
                                                                }
                                                            }
                                                        }

                                                        else {
                                                            if (x[0] <= 2609.5) {
                                                                if (x[0] <= 2607.5) {
                                                                    votes[1] += 1;
                                                                }

                                                                else {
                                                                    if (x[0] <= 2608.5) {
                                                                        if (x[1] <= 19.329999923706055) {
                                                                            votes[1] += 1;
                                                                        }

                                                                        else {
                                                                            votes[2] += 1;
                                                                        }
                                                                    }

                                                                    else {
                                                                        if (x[1] <= 19.329999923706055) {
                                                                            votes[1] += 1;
                                                                        }

                                                                        else {
                                                                            votes[2] += 1;
                                                                        }
                                                                    }
                                                                }
                                                            }

                                                            else {
                                                                if (x[1] <= 18.40499973297119) {
                                                                    if (x[0] <= 2620.5) {
                                                                        votes[1] += 1;
                                                                    }

                                                                    else {
                                                                        votes[1] += 1;
                                                                    }
                                                                }

                                                                else {
                                                                    votes[1] += 1;
                                                                }
                                                            }
                                                        }
                                                    }
                                                }
                                            }

                                            else {
                                                if (x[1] <= 18.854999542236328) {
                                                    if (x[1] <= 17.890000343322754) {
                                                        votes[1] += 1;
                                                    }

                                                    else {
                                                        if (x[0] <= 2773.5) {
                                                            if (x[1] <= 18.164999961853027) {
                                                                votes[1] += 1;
                                                            }

                                                            else {
                                                                votes[1] += 1;
                                                            }
                                                        }

                                                        else {
                                                            votes[2] += 1;
                                                        }
                                                    }
                                                }

                                                else {
                                                    votes[2] += 1;
                                                }
                                            }
                                        }

                                        else {
                                            if (x[0] <= 1776.0) {
                                                if (x[1] <= 20.114999771118164) {
                                                    if (x[0] <= 1602.5) {
                                                        if (x[1] <= 20.06999969482422) {
                                                            votes[1] += 1;
                                                        }

                                                        else {
                                                            if (x[1] <= 20.09000015258789) {
                                                                if (x[0] <= 1585.5) {
                                                                    votes[1] += 1;
                                                                }

                                                                else {
                                                                    votes[1] += 1;
                                                                }
                                                            }

                                                            else {
                                                                if (x[0] <= 1584.5) {
                                                                    if (x[0] <= 1574.0) {
                                                                        votes[1] += 1;
                                                                    }

                                                                    else {
                                                                        votes[1] += 1;
                                                                    }
                                                                }

                                                                else {
                                                                    votes[1] += 1;
                                                                }
                                                            }
                                                        }
                                                    }

                                                    else {
                                                        if (x[1] <= 19.96500015258789) {
                                                            votes[1] += 1;
                                                        }

                                                        else {
                                                            votes[1] += 1;
                                                        }
                                                    }
                                                }

                                                else {
                                                    if (x[0] <= 1584.5) {
                                                        if (x[1] <= 20.15999984741211) {
                                                            if (x[0] <= 1575.5) {
                                                                if (x[1] <= 20.139999389648438) {
                                                                    votes[1] += 1;
                                                                }

                                                                else {
                                                                    votes[2] += 1;
                                                                }
                                                            }

                                                            else {
                                                                if (x[1] <= 20.139999389648438) {
                                                                    votes[2] += 1;
                                                                }

                                                                else {
                                                                    votes[2] += 1;
                                                                }
                                                            }
                                                        }

                                                        else {
                                                            if (x[0] <= 1562.5) {
                                                                if (x[0] <= 1559.5) {
                                                                    votes[2] += 1;
                                                                }

                                                                else {
                                                                    votes[1] += 1;
                                                                }
                                                            }

                                                            else {
                                                                votes[2] += 1;
                                                            }
                                                        }
                                                    }

                                                    else {
                                                        if (x[1] <= 20.15999984741211) {
                                                            votes[1] += 1;
                                                        }

                                                        else {
                                                            if (x[0] <= 1587.5) {
                                                                if (x[0] <= 1586.5) {
                                                                    votes[1] += 1;
                                                                }

                                                                else {
                                                                    votes[1] += 1;
                                                                }
                                                            }

                                                            else {
                                                                votes[1] += 1;
                                                            }
                                                        }
                                                    }
                                                }
                                            }

                                            else {
                                                if (x[1] <= 20.050000190734863) {
                                                    if (x[1] <= 19.469999313354492) {
                                                        if (x[0] <= 2617.5) {
                                                            votes[2] += 1;
                                                        }

                                                        else {
                                                            votes[2] += 1;
                                                        }
                                                    }

                                                    else {
                                                        votes[2] += 1;
                                                    }
                                                }

                                                else {
                                                    votes[1] += 1;
                                                }
                                            }
                                        }
                                    }
                                }

                                else {
                                    if (x[0] <= 1130.0) {
                                        if (x[1] <= 20.979999542236328) {
                                            votes[1] += 1;
                                        }

                                        else {
                                            if (x[1] <= 22.515000343322754) {
                                                if (x[1] <= 21.860000610351562) {
                                                    votes[1] += 1;
                                                }

                                                else {
                                                    if (x[0] <= 840.0) {
                                                        votes[1] += 1;
                                                    }

                                                    else {
                                                        if (x[0] <= 854.0) {
                                                            votes[1] += 1;
                                                        }

                                                        else {
                                                            votes[1] += 1;
                                                        }
                                                    }
                                                }
                                            }

                                            else {
                                                if (x[0] <= 764.5) {
                                                    votes[1] += 1;
                                                }

                                                else {
                                                    votes[1] += 1;
                                                }
                                            }
                                        }
                                    }

                                    else {
                                        if (x[1] <= 23.489999771118164) {
                                            if (x[0] <= 1553.5) {
                                                if (x[1] <= 20.244999885559082) {
                                                    if (x[0] <= 1347.0) {
                                                        votes[2] += 1;
                                                    }

                                                    else {
                                                        if (x[0] <= 1512.0) {
                                                            if (x[0] <= 1505.5) {
                                                                if (x[1] <= 20.219999313354492) {
                                                                    if (x[0] <= 1502.5) {
                                                                        if (x[0] <= 1499.0) {
                                                                            votes[1] += 1;
                                                                        }

                                                                        else {
                                                                            votes[1] += 1;
                                                                        }
                                                                    }

                                                                    else {
                                                                        votes[1] += 1;
                                                                    }
                                                                }

                                                                else {
                                                                    if (x[0] <= 1503.5) {
                                                                        votes[1] += 1;
                                                                    }

                                                                    else {
                                                                        votes[1] += 1;
                                                                    }
                                                                }
                                                            }

                                                            else {
                                                                if (x[0] <= 1508.5) {
                                                                    if (x[1] <= 20.219999313354492) {
                                                                        if (x[0] <= 1506.5) {
                                                                            votes[1] += 1;
                                                                        }

                                                                        else {
                                                                            votes[1] += 1;
                                                                        }
                                                                    }

                                                                    else {
                                                                        votes[1] += 1;
                                                                    }
                                                                }

                                                                else {
                                                                    votes[1] += 1;
                                                                }
                                                            }
                                                        }

                                                        else {
                                                            if (x[1] <= 20.219999313354492) {
                                                                if (x[0] <= 1532.5) {
                                                                    votes[2] += 1;
                                                                }

                                                                else {
                                                                    votes[1] += 1;
                                                                }
                                                            }

                                                            else {
                                                                if (x[0] <= 1534.5) {
                                                                    votes[1] += 1;
                                                                }

                                                                else {
                                                                    votes[2] += 1;
                                                                }
                                                            }
                                                        }
                                                    }
                                                }

                                                else {
                                                    if (x[1] <= 21.015000343322754) {
                                                        if (x[0] <= 1501.5) {
                                                            votes[2] += 1;
                                                        }

                                                        else {
                                                            if (x[0] <= 1505.5) {
                                                                if (x[1] <= 20.270000457763672) {
                                                                    if (x[0] <= 1503.5) {
                                                                        votes[1] += 1;
                                                                    }

                                                                    else {
                                                                        votes[1] += 1;
                                                                    }
                                                                }

                                                                else {
                                                                    if (x[0] <= 1503.5) {
                                                                        if (x[1] <= 20.289999961853027) {
                                                                            votes[1] += 1;
                                                                        }

                                                                        else {
                                                                            if (x[0] <= 1502.5) {
                                                                                votes[2] += 1;
                                                                            }

                                                                            else {
                                                                                if (x[1] <= 20.425000190734863) {
                                                                                    votes[2] += 1;
                                                                                }

                                                                                else {
                                                                                    votes[2] += 1;
                                                                                }
                                                                            }
                                                                        }
                                                                    }

                                                                    else {
                                                                        votes[2] += 1;
                                                                    }
                                                                }
                                                            }

                                                            else {
                                                                if (x[0] <= 1552.5) {
                                                                    if (x[0] <= 1524.5) {
                                                                        if (x[1] <= 20.350000381469727) {
                                                                            votes[2] += 1;
                                                                        }

                                                                        else {
                                                                            if (x[0] <= 1521.0) {
                                                                                votes[2] += 1;
                                                                            }

                                                                            else {
                                                                                votes[1] += 1;
                                                                            }
                                                                        }
                                                                    }

                                                                    else {
                                                                        votes[2] += 1;
                                                                    }
                                                                }

                                                                else {
                                                                    votes[2] += 1;
                                                                }
                                                            }
                                                        }
                                                    }

                                                    else {
                                                        if (x[1] <= 21.699999809265137) {
                                                            votes[1] += 1;
                                                        }

                                                        else {
                                                            votes[2] += 1;
                                                        }
                                                    }
                                                }
                                            }

                                            else {
                                                if (x[0] <= 3991.5) {
                                                    if (x[0] <= 1626.5) {
                                                        if (x[0] <= 1587.5) {
                                                            if (x[1] <= 20.854999542236328) {
                                                                if (x[0] <= 1554.5) {
                                                                    if (x[1] <= 20.3100004196167) {
                                                                        votes[2] += 1;
                                                                    }

                                                                    else {
                                                                        votes[2] += 1;
                                                                    }
                                                                }

                                                                else {
                                                                    votes[2] += 1;
                                                                }
                                                            }

                                                            else {
                                                                if (x[1] <= 21.515000343322754) {
                                                                    votes[1] += 1;
                                                                }

                                                                else {
                                                                    votes[2] += 1;
                                                                }
                                                            }
                                                        }

                                                        else {
                                                            if (x[1] <= 20.3100004196167) {
                                                                votes[1] += 1;
                                                            }

                                                            else {
                                                                if (x[1] <= 21.52500057220459) {
                                                                    if (x[0] <= 1588.5) {
                                                                        votes[2] += 1;
                                                                    }

                                                                    else {
                                                                        votes[2] += 1;
                                                                    }
                                                                }

                                                                else {
                                                                    votes[2] += 1;
                                                                }
                                                            }
                                                        }
                                                    }

                                                    else {
                                                        if (x[1] <= 23.469999313354492) {
                                                            votes[2] += 1;
                                                        }

                                                        else {
                                                            votes[2] += 1;
                                                        }
                                                    }
                                                }

                                                else {
                                                    if (x[1] <= 23.44499969482422) {
                                                        votes[1] += 1;
                                                    }

                                                    else {
                                                        votes[2] += 1;
                                                    }
                                                }
                                            }
                                        }

                                        else {
                                            if (x[0] <= 2967.0) {
                                                votes[2] += 1;
                                            }

                                            else {
                                                if (x[1] <= 24.010000228881836) {
                                                    if (x[1] <= 23.989999771118164) {
                                                        votes[1] += 1;
                                                    }

                                                    else {
                                                        if (x[0] <= 3762.0) {
                                                            votes[1] += 1;
                                                        }

                                                        else {
                                                            votes[1] += 1;
                                                        }
                                                    }
                                                }

                                                else {
                                                    votes[1] += 1;
                                                }
                                            }
                                        }
                                    }
                                }
                            }
                        }

                        // tree #2
                        if (x[0] <= 299.5) {
                            if (x[0] <= 262.5) {
                                if (x[0] <= 1.0) {
                                    if (x[1] <= 21.015000343322754) {
                                        votes[0] += 1;
                                    }

                                    else {
                                        if (x[1] <= 21.59000015258789) {
                                            votes[1] += 1;
                                        }

                                        else {
                                            votes[0] += 1;
                                        }
                                    }
                                }

                                else {
                                    votes[0] += 1;
                                }
                            }

                            else {
                                if (x[0] <= 264.0) {
                                    if (x[1] <= 20.0) {
                                        votes[0] += 1;
                                    }

                                    else {
                                        votes[1] += 1;
                                    }
                                }

                                else {
                                    votes[0] += 1;
                                }
                            }
                        }

                        else {
                            if (x[0] <= 1129.0) {
                                if (x[1] <= 22.570000648498535) {
                                    if (x[0] <= 1104.5) {
                                        if (x[0] <= 718.0) {
                                            votes[1] += 1;
                                        }

                                        else {
                                            if (x[0] <= 721.0) {
                                                votes[1] += 1;
                                            }

                                            else {
                                                if (x[0] <= 774.0) {
                                                    if (x[1] <= 20.69499969482422) {
                                                        votes[1] += 1;
                                                    }

                                                    else {
                                                        votes[1] += 1;
                                                    }
                                                }

                                                else {
                                                    if (x[0] <= 954.5) {
                                                        if (x[0] <= 952.0) {
                                                            if (x[1] <= 21.860000610351562) {
                                                                votes[1] += 1;
                                                            }

                                                            else {
                                                                if (x[0] <= 848.5) {
                                                                    if (x[1] <= 21.895000457763672) {
                                                                        votes[1] += 1;
                                                                    }

                                                                    else {
                                                                        votes[1] += 1;
                                                                    }
                                                                }

                                                                else {
                                                                    votes[1] += 1;
                                                                }
                                                            }
                                                        }

                                                        else {
                                                            votes[2] += 1;
                                                        }
                                                    }

                                                    else {
                                                        votes[1] += 1;
                                                    }
                                                }
                                            }
                                        }
                                    }

                                    else {
                                        if (x[0] <= 1113.5) {
                                            votes[1] += 1;
                                        }

                                        else {
                                            if (x[1] <= 21.204999923706055) {
                                                votes[1] += 1;
                                            }

                                            else {
                                                votes[1] += 1;
                                            }
                                        }
                                    }
                                }

                                else {
                                    if (x[0] <= 761.5) {
                                        votes[1] += 1;
                                    }

                                    else {
                                        votes[1] += 1;
                                    }
                                }
                            }

                            else {
                                if (x[1] <= 17.079999923706055) {
                                    if (x[1] <= 16.265000343322754) {
                                        if (x[0] <= 2345.5) {
                                            votes[2] += 1;
                                        }

                                        else {
                                            if (x[0] <= 2627.0) {
                                                votes[1] += 1;
                                            }

                                            else {
                                                votes[2] += 1;
                                            }
                                        }
                                    }

                                    else {
                                        if (x[1] <= 16.994999885559082) {
                                            votes[0] += 1;
                                        }

                                        else {
                                            if (x[0] <= 1651.0) {
                                                votes[0] += 1;
                                            }

                                            else {
                                                if (x[0] <= 2455.0) {
                                                    votes[2] += 1;
                                                }

                                                else {
                                                    if (x[1] <= 17.024999618530273) {
                                                        votes[2] += 1;
                                                    }

                                                    else {
                                                        votes[1] += 1;
                                                    }
                                                }
                                            }
                                        }
                                    }
                                }

                                else {
                                    if (x[1] <= 20.199999809265137) {
                                        if (x[0] <= 1557.5) {
                                            if (x[1] <= 18.429999351501465) {
                                                if (x[1] <= 17.789999961853027) {
                                                    if (x[1] <= 17.75) {
                                                        if (x[0] <= 1447.0) {
                                                            votes[1] += 1;
                                                        }

                                                        else {
                                                            if (x[1] <= 17.609999656677246) {
                                                                votes[1] += 1;
                                                            }

                                                            else {
                                                                if (x[1] <= 17.65999984741211) {
                                                                    votes[2] += 1;
                                                                }

                                                                else {
                                                                    if (x[0] <= 1492.5) {
                                                                        votes[1] += 1;
                                                                    }

                                                                    else {
                                                                        if (x[1] <= 17.729999542236328) {
                                                                            if (x[0] <= 1533.5) {
                                                                                votes[1] += 1;
                                                                            }

                                                                            else {
                                                                                if (x[1] <= 17.710000038146973) {
                                                                                    votes[1] += 1;
                                                                                }

                                                                                else {
                                                                                    votes[1] += 1;
                                                                                }
                                                                            }
                                                                        }

                                                                        else {
                                                                            if (x[0] <= 1534.5) {
                                                                                votes[1] += 1;
                                                                            }

                                                                            else {
                                                                                votes[1] += 1;
                                                                            }
                                                                        }
                                                                    }
                                                                }
                                                            }
                                                        }
                                                    }

                                                    else {
                                                        if (x[0] <= 1532.5) {
                                                            if (x[0] <= 1270.5) {
                                                                votes[2] += 1;
                                                            }

                                                            else {
                                                                if (x[1] <= 17.770000457763672) {
                                                                    votes[2] += 1;
                                                                }

                                                                else {
                                                                    votes[1] += 1;
                                                                }
                                                            }
                                                        }

                                                        else {
                                                            votes[1] += 1;
                                                        }
                                                    }
                                                }

                                                else {
                                                    if (x[0] <= 1534.5) {
                                                        if (x[0] <= 1176.5) {
                                                            votes[1] += 1;
                                                        }

                                                        else {
                                                            if (x[1] <= 17.860000610351562) {
                                                                if (x[1] <= 17.84000015258789) {
                                                                    votes[2] += 1;
                                                                }

                                                                else {
                                                                    if (x[0] <= 1480.5) {
                                                                        votes[2] += 1;
                                                                    }

                                                                    else {
                                                                        if (x[0] <= 1486.0) {
                                                                            votes[1] += 1;
                                                                        }

                                                                        else {
                                                                            if (x[0] <= 1487.5) {
                                                                                votes[2] += 1;
                                                                            }

                                                                            else {
                                                                                votes[2] += 1;
                                                                            }
                                                                        }
                                                                    }
                                                                }
                                                            }

                                                            else {
                                                                votes[2] += 1;
                                                            }
                                                        }
                                                    }

                                                    else {
                                                        if (x[0] <= 1545.0) {
                                                            if (x[1] <= 17.90000057220459) {
                                                                if (x[1] <= 17.84000015258789) {
                                                                    if (x[1] <= 17.8149995803833) {
                                                                        votes[2] += 1;
                                                                    }

                                                                    else {
                                                                        votes[2] += 1;
                                                                    }
                                                                }

                                                                else {
                                                                    if (x[1] <= 17.860000610351562) {
                                                                        votes[2] += 1;
                                                                    }

                                                                    else {
                                                                        votes[2] += 1;
                                                                    }
                                                                }
                                                            }

                                                            else {
                                                                votes[2] += 1;
                                                            }
                                                        }

                                                        else {
                                                            votes[2] += 1;
                                                        }
                                                    }
                                                }
                                            }

                                            else {
                                                if (x[0] <= 1208.0) {
                                                    if (x[1] <= 19.985000610351562) {
                                                        if (x[1] <= 19.910000801086426) {
                                                            votes[2] += 1;
                                                        }

                                                        else {
                                                            votes[1] += 1;
                                                        }
                                                    }

                                                    else {
                                                        votes[2] += 1;
                                                    }
                                                }

                                                else {
                                                    if (x[1] <= 19.199999809265137) {
                                                        if (x[0] <= 1473.0) {
                                                            votes[2] += 1;
                                                        }

                                                        else {
                                                            votes[1] += 1;
                                                        }
                                                    }

                                                    else {
                                                        if (x[0] <= 1554.5) {
                                                            if (x[1] <= 19.989999771118164) {
                                                                if (x[0] <= 1237.0) {
                                                                    if (x[1] <= 19.824999809265137) {
                                                                        votes[1] += 1;
                                                                    }

                                                                    else {
                                                                        votes[1] += 1;
                                                                    }
                                                                }

                                                                else {
                                                                    votes[1] += 1;
                                                                }
                                                            }

                                                            else {
                                                                if (x[1] <= 20.18000030517578) {
                                                                    if (x[1] <= 20.15999984741211) {
                                                                        if (x[0] <= 1268.5) {
                                                                            if (x[0] <= 1218.5) {
                                                                                votes[1] += 1;
                                                                            }

                                                                            else {
                                                                                votes[2] += 1;
                                                                            }
                                                                        }

                                                                        else {
                                                                            if (x[1] <= 20.09000015258789) {
                                                                                if (x[0] <= 1489.0) {
                                                                                    if (x[0] <= 1486.5) {
                                                                                        if (x[0] <= 1476.5) {
                                                                                            votes[1] += 1;
                                                                                        }

                                                                                        else {
                                                                                            votes[1] += 1;
                                                                                        }
                                                                                    }

                                                                                    else {
                                                                                        votes[1] += 1;
                                                                                    }
                                                                                }

                                                                                else {
                                                                                    votes[1] += 1;
                                                                                }
                                                                            }

                                                                            else {
                                                                                if (x[1] <= 20.139999389648438) {
                                                                                    if (x[1] <= 20.114999771118164) {
                                                                                        if (x[0] <= 1510.5) {
                                                                                            if (x[0] <= 1494.5) {
                                                                                                votes[1] += 1;
                                                                                            }

                                                                                            else {
                                                                                                if (x[0] <= 1498.0) {
                                                                                                    votes[1] += 1;
                                                                                                }

                                                                                                else {
                                                                                                    votes[1] += 1;
                                                                                                }
                                                                                            }
                                                                                        }

                                                                                        else {
                                                                                            if (x[0] <= 1519.0) {
                                                                                                votes[2] += 1;
                                                                                            }

                                                                                            else {
                                                                                                votes[1] += 1;
                                                                                            }
                                                                                        }
                                                                                    }

                                                                                    else {
                                                                                        if (x[0] <= 1491.5) {
                                                                                            votes[1] += 1;
                                                                                        }

                                                                                        else {
                                                                                            if (x[0] <= 1509.5) {
                                                                                                votes[2] += 1;
                                                                                            }

                                                                                            else {
                                                                                                votes[1] += 1;
                                                                                            }
                                                                                        }
                                                                                    }
                                                                                }

                                                                                else {
                                                                                    if (x[0] <= 1520.5) {
                                                                                        votes[1] += 1;
                                                                                    }

                                                                                    else {
                                                                                        votes[1] += 1;
                                                                                    }
                                                                                }
                                                                            }
                                                                        }
                                                                    }

                                                                    else {
                                                                        if (x[0] <= 1492.0) {
                                                                            votes[1] += 1;
                                                                        }

                                                                        else {
                                                                            if (x[0] <= 1500.0) {
                                                                                votes[2] += 1;
                                                                            }

                                                                            else {
                                                                                if (x[0] <= 1521.0) {
                                                                                    if (x[0] <= 1504.5) {
                                                                                        votes[1] += 1;
                                                                                    }

                                                                                    else {
                                                                                        votes[1] += 1;
                                                                                    }
                                                                                }

                                                                                else {
                                                                                    votes[2] += 1;
                                                                                }
                                                                            }
                                                                        }
                                                                    }
                                                                }

                                                                else {
                                                                    if (x[0] <= 1521.0) {
                                                                        votes[1] += 1;
                                                                    }

                                                                    else {
                                                                        votes[1] += 1;
                                                                    }
                                                                }
                                                            }
                                                        }

                                                        else {
                                                            if (x[0] <= 1556.5) {
                                                                if (x[1] <= 20.0600004196167) {
                                                                    votes[1] += 1;
                                                                }

                                                                else {
                                                                    votes[2] += 1;
                                                                }
                                                            }

                                                            else {
                                                                if (x[1] <= 20.09500026702881) {
                                                                    votes[1] += 1;
                                                                }

                                                                else {
                                                                    votes[2] += 1;
                                                                }
                                                            }
                                                        }
                                                    }
                                                }
                                            }
                                        }

                                        else {
                                            if (x[0] <= 2617.5) {
                                                if (x[0] <= 1599.5) {
                                                    if (x[0] <= 1567.5) {
                                                        if (x[1] <= 20.09000015258789) {
                                                            if (x[1] <= 20.06999969482422) {
                                                                if (x[1] <= 18.80500030517578) {
                                                                    if (x[1] <= 17.824999809265137) {
                                                                        votes[1] += 1;
                                                                    }

                                                                    else {
                                                                        votes[2] += 1;
                                                                    }
